network Death_causes_plus_covid {
}
variable Gender {
  type discrete [ 2 ] { female, male };
}
variable Age-range {
  type discrete [ 3 ] { young, adult, old };
}
variable Falls {
    type discrete [ 2 ] { true, false };
}
variable Poisonings {
    type discrete [ 2 ] { true, false };
}
variable Nature-force {
    type discrete [ 2 ] { true, false };
}
variable Other-injuries {
    type discrete [ 2 ] { true, false };
}
variable Transport-incident {
    type discrete [ 2 ] { true, false };
}
variable SHV {
    type discrete [ 2 ] { true, false };
}
variable Respiratory-infection {
    type discrete [ 2 ] { true, false };
}
variable Cardiovascular-disease {
    type discrete [ 2 ] { true, false };
}
variable Malignancy {
    type discrete [ 2 ] { true, false };
}
variable Covid {
    type discrete [ 2 ] { true, false };
}
variable Other-sickness {
    type discrete [ 2 ] { true, false };
}
variable Unintentional-injuries {
    type discrete [ 2 ] { true, false };
}
variable Sickness {
    type discrete [ 2 ] { true, false };
}
variable Death {
    type discrete [ 2 ] { true, false };
}
probability ( Gender ) {
    table 0.4959, 0.5041;
}
probability ( Age-range ) {
    table 0.3188, 0.5995, 0.0817;
}
probability ( Falls | Age-range, Gender, Cardiovascular-disease ) {
    (young, female, false) 0.14037, 0.85963
    (adult, female, false) 0.06380, 0.93620
    (old, female, false) 0.12761, 0.87239
    (young, male, false) 0.18288, 0.81712
    (adult, male, false) 0.08313, 0.91687
    (old, male, false) 0.16626, 0.83374
    (young, female, true) 0.14037, 0.85963
    (adult, female, true) 0.08520, 0.9148
    (old, female, true) 0.15, 0.85
    (young, male, true) 0.08313, 0.91687
    (adult, male, true) 0.10411, 0.89589
    (old, male, true) 0.18336, 0.81664
}
probability ( Poisonings | Age-range, Gender ) {
    (young, female) 0.008901, 0.991099
    (adult, female) 0.0079, 0.9921
    (old, female) 0.002967, 0.997033
    (young, male) 0.01, 0.99
    (adult, male) 0.00928, 0.99072
    (old, male) 0.003483, 0.996517
}
probability ( Nature-force ) {
    table 0.859, 0.141;
}
probability ( Covid | Age-range, Gender ){
    (young, female) 0.010900, 0.989100
    (adult, female) 0.011500, 0.988500
    (old, female) 0.003100, 0.996900
    (young, male) 0.011400, 0.9886
    (adult, male) 0.011500, 0.9885
    (old, male) 0.002800, 0.997200
}
probability ( Transport-incident | Age-range, Gender, Cardiovascular-disease ) {
    (young, female, false) 0.01, 0.99
    (adult, female, false) 0.057, 0.943
    (old, female, false) 0.027, 0.973
    (young, male, false) 0.018, 0.982
    (adult, male, false) 0.09, 0.91
    (old, male, false) 0.038, 0.962
    (young, female, true) 0.0152, 0.9848
    (adult, female, true) 0.08664, 0.91336
    (old, female, true) 0.04104, 0.95896 
    (young, male, true) 0.02736, 0.97264
    (adult, male, true) 0.1368, 0.8632
    (old, male, true) 0.05776, 0.94224
}
probability ( Respiratory-infection | Age-range, Gender, Covid ) {
    (young, female, false) 0.415000, 0.585000
    (adult, female, false) 0.180000, 0.820000
    (old, female, false) 0.247800, 0.7522000
    (young, male, false) 0.332000, 0.668000
    (adult, male, false) 0.144000, 0.856000
    (old, male, false) 0.198240, 0.801760
    (young, female, true) 0.595900, 0.404100
    (adult, female, true) 0.444700, 0.555300
    (old, female, true) 0.747900, 0.252100
    (young, male, true) 0.506700, 0.493300
    (adult, male, true) 0.399700, 0.600300
    (old, male, true) 0.681240, 0.318760
}
probability ( Cardiovascular-disease | Age-range, Gender ) {
    (young, female) 0.0036, 0.9964
    (adult, female) 0.0084, 0.9916
    (old, female) 0.036, 0.964
    (young, male) 0.084, 0.916
    (adult, male) 0.0476, 0.9524
    (old, male) 0.00204, 0.99796
}
probability ( Malignancy | Age-range, Gender ) {
    (young, female) 0.002000, 0.9980000
    (adult, female) 0.065700, 0.934300
    (old, female) 0.168300, 0.831700
    (young, male) 0.002400, 0.997600
    (adult, male) 0.078840, 0.921160
    (old, male) 0.201960, 0.798040
}
probability ( Other-injuries | Age-range, Gender ) {
    (young, female) 0.00111, 0.99899
    (adult, female) 0.0000668, 0.9999332
    (old, female) 0.000280, 0.99972
    (young, male) 0.000151, 0.999849
    (adult, male) 0.000160, 0.99984
    (old, male) 0.000328, 0.999672
}
probability ( Other-sickness | Age-range, Gender ) {
    (young, female) 0.00226, 0.99774
    (adult, female) 0.00111, 0.99889
    (old, female) 0.0145, 0.9855
    (young, male) 0.00280, 0.9972
    (adult, male) 0.00287, 0.99713
    (old, male) 0.0171, 0.9829
}
probability ( Unintentional-injuries | Falls, Poisonings, Nature-force) {
    (true, true, true) 0.001460018, 0.998539982
    (true, true, false) 0.00145122, 0.99854878
    (true, false, true) 0.001362798, 0.998637202
    (true, false, false) 0.001354, 0.998646
    (false, true, true) 0.000106018, 0.999893982
    (false, true, false) 0.00009722, 0.99990278
    (false, false, true) 0.000008798, 0.999991202
    (false, false, false) 0.00000001, 0.99999999
}
probability ( Sickness | Respiratory-infection, Cardiovascular-disease, Malignancy) {
    (true, true, true) 0.09344, 0.90656;
    (true, true, false) 0.084026, 0.915974;
    (true, false, true) 0.062126, 0.937874;
    (true, false, false) 0.010356, 0.989644;
    (false, true, true) 0.04344, 0.95656;
    (false, true, false) 0.03767, 0.96233;
    (false, false, true) 0.01577, 0.98423;
    (false, false, false) 0.0001, 0.9999;
}
probability ( SHV | Age-range, Gender ) {
    (young, female) 0.00021, 0.99979
    (adult, female) 0.01195, 0.98805
    (old, female) 0.008, 0.9992
    (young, male) 0.00042, 0.99958
    (adult, male) 0.0239, 0.9761
    (old, male) 0.016, 0.984
}
probability (Death | Other-injuries, Unintentional-injuries, Transport-incident, SHV, Sickness, Other-sickness) {
    (true, true, true, true, true, true) 0.999, 0.001;
    (true, true, true, true, true, false) 0.87, 0.13;
    (true, true, true, true, false, true) 0.65, 0.35;
    (true, true, true, true, false, false) 0.52, 0.48;
    (true, true, true, false, true, true) 0.88, 0.12;
    (true, true, true, false, true, false) 0.75, 0.25;
    (true, true, true, false, false, true) 0.53, 0.47;
    (true, true, true, false, false, false) 0.4, 0.6;
    (true, true, false, true, true, true) 0.9, 0.1;
    (true, true, false, true, true, false) 0.77, 0.23;
    (true, true, false, true, false, true) 0.55, 0.45;
    (true, true, false, true, false, false) 0.42, 0.58;
    (true, true, false, false, true, true) 0.78, 0.22;
    (true, true, false, false, true, false) 0.65, 0.35;
    (true, true, false, false, false, true) 0.43, 0.57;
    (true, true, false, false, false, false) 0.29, 0.71;
    (true, false, true, true, true, true) 0.85, 0.15;
    (true, false, true, true, true, false) 0.72, 0.28;
    (true, false, true, true, false, true) 0.5, 0.5;
    (true, false, true, true, false, false) 0.37, 0.63;
    (true, false, true, false, true, true) 0.73, 0.27;
    (true, false, true, false, true, false) 0.59, 0.41;
    (true, false, true, false, false, true) 0.37, 0.63;
    (true, false, true, false, false, false) 0.24, 0.76;
    (true, false, false, true, true, true) 0.75, 0.25;
    (true, false, false, true, true, false) 0.62, 0.38;
    (true, false, false, true, false, true) 0.4, 0.6;
    (true, false, false, true, false, false) 0.26, 0.74;
    (true, false, false, false, true, true) 0.62, 0.38;
    (true, false, false, false, true, false) 0.49, 0.51;
    (true, false, false, false, false, true) 0.27, 0.73;
    (true, false, false, false, false, false) 0.14, 0.86;
    (false, true, true, true, true, true) 0.86, 0.14;
    (false, true, true, true, true, false) 0.73, 0.27;
    (false, true, true, true, false, true) 0.51, 0.49;
    (false, true, true, true, false, false) 0.38, 0.62;
    (false, true, true, false, true, true) 0.74, 0.26;
    (false, true, true, false, true, false) 0.6, 0.4;
    (false, true, true, false, false, true) 0.38, 0.62;
    (false, true, true, false, false, false) 0.25, 0.75;
    (false, true, false, true, true, true) 0.76, 0.24;
    (false, true, false, true, true, false) 0.63, 0.37;
    (false, true, false, true, false, true) 0.41, 0.59;
    (false, true, false, true, false, false) 0.27, 0.73;
    (false, true, false, false, true, true) 0.63, 0.37;
    (false, true, false, false, true, false) 0.5, 0.5;
    (false, true, false, false, false, true) 0.28, 0.72;
    (false, true, false, false, false, false) 0.15, 0.85;
    (false, false, true, true, true, true) 0.71, 0.29;
    (false, false, true, true, true, false) 0.57, 0.43;
    (false, false, true, true, false, true) 0.35, 0.65;
    (false, false, true, true, false, false) 0.22, 0.78;
    (false, false, true, false, true, true) 0.58, 0.42;
    (false, false, true, false, true, false) 0.45, 0.55;
    (false, false, true, false, false, true) 0.23, 0.77;
    (false, false, true, false, false, false) 0.1, 0.9;
    (false, false, false, true, true, true) 0.6, 0.4;
    (false, false, false, true, true, false) 0.47, 0.53;
    (false, false, false, true, false, true) 0.25, 0.75;
    (false, false, false, true, false, false) 0.12, 0.88;
    (false, false, false, false, true, true) 0.48, 0.52;
    (false, false, false, false, true, false) 0.35, 0.65;
    (false, false, false, false, false, true) 0.13, 0.87;
    (false, false, false, false, false, false) 0.001, 0.999;

}