network Death_causes_plus_covid {
}
variable Gender {
  type discrete [ 2 ] { female, male };
}
variable Age-range {
  type discrete [ 3 ] { young, adult, old };
}
variable Falls {
    type discrete [ 2 ] { true, false };
}
variable Poisonings {
    type discrete [ 2 ] { true, false };
}
variable Nature-force {
    type discrete [ 2 ] { true, false };
}
variable Other-injuries {
    type discrete [ 2 ] { true, false };
}
variable Transport-incident {
    type discrete [ 2 ] { true, false };
}
variable SHV {
    type discrete [ 2 ] { true, false };
}
variable Respiratory-infection {
    type discrete [ 2 ] { true, false };
}
variable Cardiovascular-disease {
    type discrete [ 2 ] { true, false };
}
variable Malignancy {
    type discrete [ 2 ] { true, false };
}
variable Covid {
    type discrete [ 2 ] { true, false };
}
variable Other-sickness {
    type discrete [ 2 ] { true, false };
}
variable Unintentional-injuries {
    type discrete [ 2 ] { true, false };
}
variable Sickness {
    type discrete [ 2 ] { true, false };
}
variable Death {
    type discrete [ 2 ] { true, false };
}
probability ( Gender ) {
    table 0.4959, 0.5041;
}
probability ( Age-range ) {
    table 0.3188, 0.5995, 0.0817;
}
probability ( Falls | Age-range, Gender, Cardiovascular-disease ) {
    (young, female, false) 0.85963, 0.14037
    (adult, female, false) 0.93620, 0.06380
    (old, female, false) 0.87239, 0.12761
    (young, male, false) 0.81712, 0.18288
    (adult, male, false) 0.91687, 0.08313
    (old, male, false) 0.83374, 0.16626
    (young, female, true) 0.85963, 0.14037
    (adult, female, true) 0.9148, 0.08520
    (old, female, true) 0.85, 0.15
    (young, male, true) 0.91687, 0.08313
    (adult, male, true) 0.89589, 0.10411
    (old, male, true) 0.81664, 0.18336
}
probability ( Poisonings | Age-range, Gender ) {
    (young, female) 0.991099, 0.008901
    (adult, female) 0.9921, 0.0079
    (old, female) 0.997033, 0.002967
    (young, male) 0.99, 0.01
    (adult, male) 0.99072, 0.00928
    (old, male) 0.996517, 0.003483
}
probability ( Nature-force ) {
    table 0.141, 0.859;
}
probability ( Covid | Age-range, Gender ){
    (young, female) 0.989100, 0.010900
    (adult, female) 0.988500, 0.011500
    (old, female) 0.996900, 0.003100
    (young, male) 0.9886, 0.011400
    (adult, male) 0.9885, 0.011500
    (old, male) 0.997200, 0.002800
}
probability ( Transport-incident | Age-range, Gender, Cardiovascular-disease ) {
    (young, female, false) 0.99, 0.01
    (adult, female, false) 0.943, 0.057
    (old, female, false) 0.973, 0.027
    (young, male, false) 0.982, 0.018
    (adult, male, false) 0.91, 0.09
    (old, male, false) 0.962, 0.038
    (young, female, true) 0.9848, 0.0152
    (adult, female, true) 0.91336, 0.08664
    (old, female, true) 0.95896, 0.04104 
    (young, male, true) 0.97264, 0.02736
    (adult, male, true) 0.8632, 0.1368
    (old, male, true) 0.94224, 0.05776
}
probability ( Respiratory-infection | Age-range, Gender, Covid ) {
    (young, female, false) 0.585000, 0.415000
    (adult, female, false) 0.820000, 0.180000
    (old, female, false) 0.7522000, 0.247800
    (young, male, false) 0.668000, 0.332000
    (adult, male, false) 0.856000, 0.144000
    (old, male, false) 0.801760, 0.198240
    (young, female, true) 0.404100, 0.595900
    (adult, female, true) 0.555300, 0.444700
    (old, female, true) 0.252100, 0.747900
    (young, male, true) 0.493300, 0.506700
    (adult, male, true) 0.600300, 0.399700
    (old, male, true) 0.318760, 0.681240
}
probability ( Cardiovascular-disease | Age-range, Gender ) {
    (young, female) 0.9964, 0.0036
    (adult, female) 0.9916, 0.0084
    (old, female) 0.964, 0.036
    (young, male) 0.916, 0.084
    (adult, male) 0.9524, 0.0476
    (old, male) 0.99796, 0.00204
}
probability ( Malignancy | Age-range, Gender ) {
    (young, female) 0.9980000, 0.002000
    (adult, female) 0.934300, 0.065700
    (old, female) 0.831700, 0.168300
    (young, male) 0.997600, 0.002400
    (adult, male) 0.921160, 0.078840
    (old, male) 0.798040, 0.201960
}
probability ( Other-injuries | Age-range, Gender ) {
    (young, female) 0.99899, 0.00111
    (adult, female) 0.9999332, 0.0000668
    (old, female) 0.99972, 0.000280
    (young, male) 0.999849, 0.000151
    (adult, male) 0.99984, 0.000160
    (old, male) 0.999672, 0.000328
}
probability ( Other-sickness | Age-range, Gender ) {
    (young, female) 0.99774, 0.00226
    (adult, female) 0.99889, 0.00111
    (old, female) 0.9855, 0.0145
    (young, male) 0.9972, 0.00280
    (adult, male) 0.99713, 0.00287
    (old, male) 0.9829, 0.0171
}
probability ( Unintentional-injuries | Falls, Poisonings, Nature-force) {
    (true, true, true) 0.998539982, 0.001460018
    (true, true, false) 0.99854878, 0.00145122
    (true, false, true) 0.998637202, 0.001362798
    (true, false, false) 0.998646, 0.001354
    (false, true, true) 0.999893982, 0.000106018
    (false, true, false) 0.99990278, 0.00009722
    (false, false, true) 0.999991202, 0.000008798
    (false, false, false) 0.99999999, 0.00000001
}
probability ( Sickness | Respiratory-infection, Cardiovascular-disease, Malignancy) {
    (true, true, true) 0.94656, 0.05344
    (true, true, false) 0.955974, 0.044026
    (true, false, true) 0.977874, 0.022126
    (true, false, false) 0.993644, 0.006356
    (false, true, true) 0.94656, 0.05344
    (false, true, false) 0.96233, 0.03767
    (false, false, true) 0.98423, 0.01577
    (false, false, false) 0.9999, 0.0001
}
probability ( SHV | Age-range, Gender ) {
    (young, female) 0.99979, 0.00021
    (adult, female) 0.98805, 0.01195
    (old, female) 0.9992, 0.008
    (young, male) 0.99958, 0.00042
    (adult, male) 0.9761, 0.0239
    (old, male) 0.984, 0.016
}
probability (Death | Other-injuries, Unintentional-injuries, Transport-incident, SHV, Sickness, Other-sickness) {
    (true, true, true, true, true, true) 0.0001, 0.9999
    (true, true, true, true, true, false) 0.19, 0.81
    (true, true, true, true, false, true) 0.25, 0.75
    (true, true, true, true, false, false) 0.44, 0.56
    (true, true, true, false, true, true) 0.15, 0.85
    (true, true, true, false, true, false) 0.34, 0.66
    (true, true, true, false, false, true) 0.4, 0.6
    (true, true, true, false, false, false) 0.59, 0.41
    (true, true, false, true, true, true) 0.1, 0.9
    (true, true, false, true, true, false) 0.29, 0.71
    (true, true, false, true, false, true) 0.35, 0.65
    (true, true, false, true, false, false) 0.54, 0.46
    (true, true, false, false, true, true) 0.25, 0.75
    (true, true, false, false, true, false) 0.44, 0.56
    (true, true, false, false, false, true) 0.5, 0.5
    (true, true, false, false, false, false) 0.7, 0.3
    (true, false, true, true, true, true) 0.15, 0.85
    (true, false, true, true, true, false) 0.34, 0.66
    (true, false, true, true, false, true) 0.4, 0.6
    (true, false, true, true, false, false) 0.59, 0.41
    (true, false, true, false, true, true) 0.3, 0.7
    (true, false, true, false, true, false) 0.5, 0.5
    (true, false, true, false, false, true) 0.56, 0.44
    (true, false, true, false, false, false) 0.75, 0.25
    (true, false, false, true, true, true) 0.25, 0.75
    (true, false, false, true, true, false) 0.44, 0.56
    (true, false, false, true, false, true) 0.5, 0.5
    (true, false, false, true, false, false) 0.7, 0.3
    (true, false, false, false, true, true) 0.41, 0.59
    (true, false, false, false, true, false) 0.6, 0.4
    (true, false, false, false, false, true) 0.66, 0.34
    (true, false, false, false, false, false) 0.85, 0.15
    (false, true, true, true, true, true) 0.15, 0.85
    (false, true, true, true, true, false) 0.34, 0.66
    (false, true, true, true, false, true) 0.4, 0.6
    (false, true, true, true, false, false) 0.59, 0.41
    (false, true, true, false, true, true) 0.3, 0.7
    (false, true, true, false, true, false) 0.5, 0.5
    (false, true, true, false, false, true) 0.56, 0.44
    (false, true, true, false, false, false) 0.75, 0.25
    (false, true, false, true, true, true) 0.25, 0.75
    (false, true, false, true, true, false) 0.44, 0.56
    (false, true, false, true, false, true) 0.5, 0.5
    (false, true, false, true, false, false) 0.7, 0.3
    (false, true, false, false, true, true) 0.41, 0.59
    (false, true, false, false, true, false) 0.6, 0.4
    (false, true, false, false, false, true) 0.66, 0.34
    (false, true, false, false, false, false) 0.85, 0.15
    (false, false, true, true, true, true) 0.3, 0.7
    (false, false, true, true, true, false) 0.5, 0.5
    (false, false, true, true, false, true) 0.56, 0.44
    (false, false, true, true, false, false) 0.75, 0.25
    (false, false, true, false, true, true) 0.46, 0.54
    (false, false, true, false, true, false) 0.65, 0.35
    (false, false, true, false, false, true) 0.71, 0.29
    (false, false, true, false, false, false) 0.9, 0.1
    (false, false, false, true, true, true) 0.41, 0.59
    (false, false, false, true, true, false) 0.6, 0.4
    (false, false, false, true, false, true) 0.66, 0.34
    (false, false, false, true, false, false) 0.85, 0.15
    (false, false, false, false, true, true) 0.56, 0.44
    (false, false, false, false, true, false) 0.75, 0.25
    (false, false, false, false, false, true) 0.81, 0.19
    (false,false,false,false,false,false) 0.9999, 0.0001
}